{
  "layers": [
    13,
    8,
    5,
    1
  ],
  "activation": "identity",
  "biases": {
    "1": [
      0.005379031052788199,
      -0.005763584302056755,
      0.041984627702120275,
      0.048954683347335985,
      -0.01565010702541166,
      0.005526491119325632,
      0.0766836351860049,
      0.1069916194182816
    ],
    "2": [
      -0.18309741534094323,
      0.20991752662497445,
      0.024737927438702987,
      0.08207157820745066,
      0.1779570986627583
    ],
    "3": [
      0.31413140923730365
    ]
  },
  "weights": {
    "1": [
      [
        -0.37255000869435545,
        0.06965750210189192,
        -0.41355924389691817,
        -0.06400353596023971,
        -0.17226088763938363,
        0.4914336062457158,
        0.8020259918047181,
        0.7848786286136467
      ],
      [
        0.44854769013963836,
        0.030470450601721592,
        -0.8696608240769664,
        0.7476214177253233,
        0.5907020735282817,
        0.059654437130101795,
        -0.43321227025552145,
        -0.6588662329413185
      ],
      [
        -0.6915436621417057,
        0.30039089443177713,
        0.7581813642115643,
        0.16159991386290048,
        -0.7769149228145932,
        -0.8682414440360307,
        -0.8566265324662119,
        0.27653807767897554
      ],
      [
        0.2632827990125759,
        0.7767302358419229,
        0.7719923432285402,
        0.46349399501409094,
        -0.4038409015202886,
        0.10979383122230207,
        -0.4575932957372549,
        -0.9100166668992715
      ],
      [
        0.5629441440853599,
        0.5344842448838805,
        0.3780376570388332,
        0.1912739622747638,
        0.035626167930765236,
        0.2602911895738498,
        -0.7197780653677447,
        0.2968395845460632
      ],
      [
        0.5401036405792244,
        -0.009737668008275056,
        -0.6207003714118796,
        0.2674004827392924,
        -0.17033601309592084,
        0.26405359654080424,
        0.588063084495393,
        0.024886846802474695
      ],
      [
        -0.39436917617698597,
        0.02468076355990796,
        -0.24739270964141613,
        0.4752825551336304,
        0.715775584345372,
        -0.07608048963091597,
        -0.07541255887451603,
        0.5777398318635781
      ],
      [
        0.36640915976330696,
        -0.3477324862260677,
        0.7507035621053919,
        -0.05983908684270081,
        0.16037135867695218,
        0.2774097139054291,
        0.26902980282329253,
        -0.14558645539512233
      ],
      [
        0.659995004381244,
        -0.21427859831937535,
        0.6611383629381307,
        -0.497020876905442,
        0.528527602111529,
        0.6658196125292555,
        -0.10178812167525006,
        -0.27128921330320643
      ],
      [
        -0.8187307222366904,
        -0.5159923866150754,
        -0.5774088011932302,
        -0.8485850860077239,
        0.3538400593404806,
        -0.665974732240412,
        -0.7927943888143116,
        0.293240750690902
      ],
      [
        -0.2839034445364614,
        0.5362079167591571,
        -1.0125310206283276,
        0.36589986436623734,
        -0.23145153293627,
        -0.5190657813637354,
        0.4405232155828812,
        0.7253024899952124
      ],
      [
        -0.6349804207050446,
        0.002104946524861535,
        -0.7499277391556768,
        0.3891264358259978,
        -0.685706310636497,
        0.6618719472530108,
        0.4714939614281049,
        0.6485393917946136
      ],
      [
        0.09856814156537484,
        -0.461185678719759,
        -0.09615474488126827,
        0.2128819926931971,
        -0.0492559926512693,
        0.8601804639434051,
        -0.5736376843863775,
        0.6646378883221605
      ]
    ],
    "2": [
      [
        0.09626757965511101,
        -0.8897890122825014,
        0.8431677389811099,
        0.6488037885102818,
        0.7033871103793782
      ],
      [
        -0.03527171090757681,
        -0.8499681153529891,
        -0.9169979463345717,
        0.6999970113453015,
        0.7257586666754883
      ],
      [
        0.09995623490753594,
        -0.21336906241633552,
        -0.5067628608286802,
        0.4751919354651772,
        0.534228580931811
      ],
      [
        0.5174958389030521,
        0.17476328959064694,
        0.371110548126731,
        -0.43740866948042745,
        0.6514070244183064
      ],
      [
        0.1856753955469367,
        0.44160832618516654,
        -0.3203077368323546,
        0.5159338238405631,
        -0.6293080323858369
      ],
      [
        -0.2814887620077692,
        -0.1676727347824647,
        -0.8782645104010595,
        -0.23078605092640425,
        -0.17673550095455692
      ],
      [
        -0.6983242564694687,
        0.1394502116052934,
        0.5388444805711321,
        -0.13688751281102354,
        -0.5832687584094773
      ],
      [
        -0.38421477582891944,
        -0.21117304895950903,
        -0.5369859209675526,
        -0.49539485510770015,
        0.6491878144827723
      ]
    ],
    "3": [
      [
        -0.2432617809277738
      ],
      [
        0.3135681024401459
      ],
      [
        0.07940156269955498
      ],
      [
        0.11909536794700226
      ],
      [
        0.2870908872973572
      ]
    ]
  }
}